// Written by quadrature.py                              

const int    N_QUADRATURE_POINTS = 39;                  

const double H_roots   [N_QUADRATURE_POINTS] = {-7.983034772719779, -7.292633670865725, -6.718438506444099, -6.203757997728104, -5.726965451782121, -5.276913315230434, -4.8469005687435205, -4.43249288259304, -4.030552814602467, -3.6387464248745407, -3.255267235992226, -2.878670311374953, -2.5077666938913175, -2.141553011986886, -1.7791625828543138, -1.4198301576857362, -1.0628655672811789, -0.7076332733485715, -0.3535358469963318, -1.8886974280762962e-16, 0.3535358469963268, 0.7076332733485726, 1.062865567281179, 1.4198301576857297, 1.779162582854314, 2.141553011986879, 2.5077666938913157, 2.8786703113749574, 3.2552672359922266, 3.6387464248745367, 4.030552814602469, 4.4324928825930385, 4.846900568743527, 5.276913315230419, 5.726965451782111, 6.203757997728108, 6.718438506444084, 7.292633670865721, 7.983034772719776};  

const double H_weights [N_QUADRATURE_POINTS] = {9.443344575063911e-29, 2.784787505225151e-24, 7.592450542205086e-21, 5.370701458463478e-18, 1.486129587732724e-15, 1.9987266806234118e-13, 1.4917200104490687e-11, 6.748646364787435e-10, 1.9698729205993773e-08, 3.8841182837130286e-07, 5.356584901373769e-06, 5.3077421124173063e-05, 0.00038593816976904496, 0.0020938374388805403, 0.008588083029362216, 0.026906241483958045, 0.06490157458316909, 0.12124212806312466, 0.1761190277014494, 0.19940865344744055, 0.17611902770145058, 0.12124212806312434, 0.06490157458316902, 0.026906241483959013, 0.008588083029362202, 0.0020938374388806687, 0.0003859381697690515, 5.307742112417048e-05, 5.356584901373734e-06, 3.884118283713259e-07, 1.96987292059932e-08, 6.748646364787643e-10, 1.4917200104488842e-11, 1.998726680624041e-13, 1.486129587733056e-15, 5.370701458463021e-18, 7.592450542208185e-21, 2.784787505225535e-24, 9.443344575064706e-29};    